<?xml version="1.0"?>
<opencv_storage>
<cascade>
  <stageType>BOOST</stageType>
  <featureType>HAAR</featureType>
  <height>24</height>
  <width>24</width>
  <stageParams>
    <boostType>GAB</boostType>
    <minHitRate>9.9500000476837158e-01</minHitRate>
    <maxFalseAlarm>5.0000000000000000e-01</maxFalseAlarm>
    <weightTrimRate>9.4999998807907104e-01</weightTrimRate>
    <maxDepth>1</maxDepth>
    <maxWeakCount>100</maxWeakCount></stageParams>
  <featureParams>
    <maxCatCount>0</maxCatCount>
    <featSize>1</featSize>
    <mode>BASIC</mode></featureParams>
  <stageNum>4</stageNum>
  <stages>
    <!-- stage 0 -->
    <_>
      <maxWeakCount>2</maxWeakCount>
      <stageThreshold>-6.8790519237518311e-01</stageThreshold>
      <weakClassifiers>
        <_>
          <internalNodes>
            0 -1 2 -1.7404240369796753e-01</internalNodes>
          <leafValues>
            6.0000002384185791e-01 -9.9401199817657471e-01</leafValues></_>
        <_>
          <internalNodes>
            0 -1 1 -3.3940352499485016e-02</internalNodes>
          <leafValues>
            3.0610680580139160e-01 -9.9700844287872314e-01</leafValues></_></weakClassifiers></_>
    <!-- stage 1 -->
    <_>
      <maxWeakCount>2</maxWeakCount>
      <stageThreshold>1.1102230246251565e-16</stageThreshold>
      <weakClassifiers>
        <_>
          <internalNodes>
            0 -1 7 -4.3677628040313721e-02</internalNodes>
          <leafValues>
            1. -9.9600797891616821e-01</leafValues></_>
        <_>
          <internalNodes>
            0 -1 3 4.5986950397491455e-02</internalNodes>
          <leafValues>
            -1. 1.</leafValues></_></weakClassifiers></_>
    <!-- stage 2 -->
    <_>
      <maxWeakCount>2</maxWeakCount>
      <stageThreshold>-4.7838771343231201e-01</stageThreshold>
      <weakClassifiers>
        <_>
          <internalNodes>
            0 -1 5 5.9179540723562241e-02</internalNodes>
          <leafValues>
            -9.9401795864105225e-01 1.</leafValues></_>
        <_>
          <internalNodes>
            0 -1 0 -1.0382302105426788e-02</internalNodes>
          <leafValues>
            5.1563024520874023e-01 -1.</leafValues></_></weakClassifiers></_>
    <!-- stage 3 -->
    <_>
      <maxWeakCount>3</maxWeakCount>
      <stageThreshold>-1.2415615320205688e+00</stageThreshold>
      <weakClassifiers>
        <_>
          <internalNodes>
            0 -1 6 -3.3786423504352570e-02</internalNodes>
          <leafValues>
            1.4285714924335480e-01 -9.9400001764297485e-01</leafValues></_>
        <_>
          <internalNodes>
            0 -1 4 -5.9909634292125702e-02</internalNodes>
          <leafValues>
            8.8854312896728516e-01 -9.7189724445343018e-01</leafValues></_>
        <_>
          <internalNodes>
            0 -1 8 -1.2390285730361938e-02</internalNodes>
          <leafValues>
            7.2433573007583618e-01 -9.6368139982223511e-01</leafValues></_></weakClassifiers></_></stages>
  <features>
    <_>
      <rects>
        <_>
          0 1 2 3 -1.</_>
        <_>
          1 1 1 3 2.</_></rects>
      <tilted>0</tilted></_>
    <_>
      <rects>
        <_>
          0 1 6 8 -1.</_>
        <_>
          0 1 3 4 2.</_>
        <_>
          3 5 3 4 2.</_></rects>
      <tilted>0</tilted></_>
    <_>
      <rects>
        <_>
          0 8 9 9 -1.</_>
        <_>
          3 8 3 9 3.</_></rects>
      <tilted>0</tilted></_>
    <_>
      <rects>
        <_>
          0 10 18 3 -1.</_>
        <_>
          0 11 18 1 3.</_></rects>
      <tilted>0</tilted></_>
    <_>
      <rects>
        <_>
          2 3 20 3 -1.</_>
        <_>
          2 4 20 1 3.</_></rects>
      <tilted>0</tilted></_>
    <_>
      <rects>
        <_>
          3 7 4 10 -1.</_>
        <_>
          5 7 2 10 2.</_></rects>
      <tilted>0</tilted></_>
    <_>
      <rects>
        <_>
          3 10 15 3 -1.</_>
        <_>
          3 11 15 1 3.</_></rects>
      <tilted>0</tilted></_>
    <_>
      <rects>
        <_>
          3 20 14 3 -1.</_>
        <_>
          3 21 14 1 3.</_></rects>
      <tilted>0</tilted></_>
    <_>
      <rects>
        <_>
          10 11 12 2 -1.</_>
        <_>
          10 11 6 1 2.</_>
        <_>
          16 12 6 1 2.</_></rects>
      <tilted>0</tilted></_></features></cascade>
</opencv_storage>
